digraph Tree {
node [shape=box] ;
0 [label="X[300] <= 6.05\ngini = 0.8\nsamples = 315\nvalue = [63, 63, 63, 63, 63]"] ;
1 [label="X[886] <= 19.595\ngini = 0.5\nsamples = 126\nvalue = [63, 0, 0, 63, 0]"] ;
0 -> 1 [labeldistance=2.5, labelangle=45, headlabel="True"] ;
2 [label="gini = 0.0\nsamples = 63\nvalue = [63, 0, 0, 0, 0]"] ;
1 -> 2 ;
3 [label="gini = 0.0\nsamples = 63\nvalue = [0, 0, 0, 63, 0]"] ;
1 -> 3 ;
4 [label="X[741] <= 31.39\ngini = 0.667\nsamples = 189\nvalue = [0, 63, 63, 0, 63]"] ;
0 -> 4 [labeldistance=2.5, labelangle=-45, headlabel="False"] ;
5 [label="gini = 0.0\nsamples = 63\nvalue = [0, 63, 0, 0, 0]"] ;
4 -> 5 ;
6 [label="X[315] <= 27.78\ngini = 0.5\nsamples = 126\nvalue = [0, 0, 63, 0, 63]"] ;
4 -> 6 ;
7 [label="gini = 0.0\nsamples = 63\nvalue = [0, 0, 63, 0, 0]"] ;
6 -> 7 ;
8 [label="gini = 0.0\nsamples = 63\nvalue = [0, 0, 0, 0, 63]"] ;
6 -> 8 ;
}
